Language model created by QuickLM on Sat Jan 13 13:47:18 EST 2024
Copyright (c) 1996-2010 Carnegie Mellon University and Alexander I. Rudnicky

The model is in standard ARPA format, designed by Doug Paul while he was at MITRE.

The code that was used to produce this language model is available in Open Source.
Please visit http://www.speech.cs.cmu.edu/tools/ for more information

The (fixed) discount mass is 0.5. The backoffs are computed using the ratio method.
This model based on a corpus of 7 sentences and 46 words

\data\
ngram 1=46
ngram 2=52
ngram 3=46

\1-grams:
-1.2341 </s> -0.3010
-1.2341 <s> -0.2749
-2.0792 BILLION -0.2974
-2.0792 BY -0.2749
-1.7782 CHROME -0.2749
-2.0792 CLOSE -0.2937
-2.0792 COMPUTER -0.2974
-2.0792 DECREASE -0.2974
-2.0792 DIVISION -0.2974
-2.0792 EIGHT -0.2974
-2.0792 EIGHTEEN -0.2974
-2.0792 EIGHTY -0.2974
-2.0792 ELEVEN -0.2974
-2.0792 FIFTEEN -0.2974
-2.0792 FIFTY -0.2974
-2.0792 FIVE -0.2974
-2.0792 FORTY -0.2974
-2.0792 FOUR -0.2974
-2.0792 FOURTEEN -0.2974
-2.0792 HUNDRED -0.2749
-2.0792 INCREASE -0.2749
-2.0792 MILLION -0.2974
-2.0792 MINUS -0.2974
-2.0792 MULTIPLY -0.2749
-2.0792 NINE -0.2937
-2.0792 NINETEEN -0.2937
-2.0792 NINETY -0.2749
-2.0792 ONE -0.2974
-2.0792 OPEN -0.2937
-2.0792 PLUS -0.2974
-2.0792 SEVEN -0.2974
-2.0792 SEVENTEEN -0.2974
-2.0792 SEVENTY -0.2974
-2.0792 SIX -0.2974
-2.0792 SIXTEEN -0.2974
-2.0792 SIXTY -0.2974
-1.7782 TEN -0.2937
-2.0792 THIRTEEN -0.2974
-2.0792 THIRTY -0.2974
-2.0792 THOUSAND -0.2974
-2.0792 THREE -0.2974
-2.0792 TWELVE -0.2974
-2.0792 TWENTY -0.2974
-2.0792 TWO -0.2974
-2.0792 VOLUME -0.2974
-2.0792 ZERO -0.2974

\2-grams:
-1.1461 <s> BILLION 0.0000
-1.1461 <s> CLOSE 0.0000
-1.1461 <s> DECREASE 0.0000
-1.1461 <s> INCREASE 0.0000
-1.1461 <s> MINUS 0.0000
-1.1461 <s> OPEN 0.0000
-1.1461 <s> ZERO 0.0000
-0.3010 BILLION MILLION 0.0000
-0.3010 BY </s> -0.3010
-0.3010 CHROME </s> -0.3010
-0.3010 CLOSE CHROME 0.0000
-0.3010 COMPUTER VOLUME 0.0000
-0.3010 DECREASE COMPUTER 0.0000
-0.3010 DIVISION MULTIPLY 0.0000
-0.3010 EIGHT NINE 0.0000
-0.3010 EIGHTEEN NINETEEN 0.0000
-0.3010 EIGHTY NINETY 0.0000
-0.3010 ELEVEN TWELVE 0.0000
-0.3010 FIFTEEN SIXTEEN 0.0000
-0.3010 FIFTY SIXTY 0.0000
-0.3010 FIVE SIX 0.0000
-0.3010 FORTY FIFTY 0.0000
-0.3010 FOUR FIVE 0.0000
-0.3010 FOURTEEN FIFTEEN 0.0000
-0.3010 HUNDRED </s> -0.3010
-0.3010 INCREASE </s> -0.3010
-0.3010 MILLION THOUSAND 0.0000
-0.3010 MINUS PLUS 0.0000
-0.3010 MULTIPLY </s> -0.3010
-0.3010 NINE TEN -0.1761
-0.3010 NINETEEN TEN -0.1761
-0.3010 NINETY </s> -0.3010
-0.3010 ONE TWO 0.0000
-0.3010 OPEN CHROME 0.0000
-0.3010 PLUS DIVISION 0.0000
-0.3010 SEVEN EIGHT 0.0000
-0.3010 SEVENTEEN EIGHTEEN 0.0000
-0.3010 SEVENTY EIGHTY 0.0000
-0.3010 SIX SEVEN 0.0000
-0.3010 SIXTEEN SEVENTEEN 0.0000
-0.3010 SIXTY SEVENTY 0.0000
-0.6021 TEN ELEVEN 0.0000
-0.6021 TEN TWENTY 0.0000
-0.3010 THIRTEEN FOURTEEN 0.0000
-0.3010 THIRTY FORTY 0.0000
-0.3010 THOUSAND HUNDRED 0.0000
-0.3010 THREE FOUR 0.0000
-0.3010 TWELVE THIRTEEN 0.0000
-0.3010 TWENTY THIRTY 0.0000
-0.3010 TWO THREE 0.0000
-0.3010 VOLUME BY 0.0000
-0.3010 ZERO ONE 0.0000

\3-grams:
-0.3010 <s> BILLION MILLION
-0.3010 <s> CLOSE CHROME
-0.3010 <s> DECREASE COMPUTER
-0.3010 <s> INCREASE </s>
-0.3010 <s> MINUS PLUS
-0.3010 <s> OPEN CHROME
-0.3010 <s> ZERO ONE
-0.3010 BILLION MILLION THOUSAND
-0.3010 CLOSE CHROME </s>
-0.3010 COMPUTER VOLUME BY
-0.3010 DECREASE COMPUTER VOLUME
-0.3010 DIVISION MULTIPLY </s>
-0.3010 EIGHT NINE TEN
-0.3010 EIGHTEEN NINETEEN TEN
-0.3010 EIGHTY NINETY </s>
-0.3010 ELEVEN TWELVE THIRTEEN
-0.3010 FIFTEEN SIXTEEN SEVENTEEN
-0.3010 FIFTY SIXTY SEVENTY
-0.3010 FIVE SIX SEVEN
-0.3010 FORTY FIFTY SIXTY
-0.3010 FOUR FIVE SIX
-0.3010 FOURTEEN FIFTEEN SIXTEEN
-0.3010 MILLION THOUSAND HUNDRED
-0.3010 MINUS PLUS DIVISION
-0.3010 NINE TEN ELEVEN
-0.3010 NINETEEN TEN TWENTY
-0.3010 ONE TWO THREE
-0.3010 OPEN CHROME </s>
-0.3010 PLUS DIVISION MULTIPLY
-0.3010 SEVEN EIGHT NINE
-0.3010 SEVENTEEN EIGHTEEN NINETEEN
-0.3010 SEVENTY EIGHTY NINETY
-0.3010 SIX SEVEN EIGHT
-0.3010 SIXTEEN SEVENTEEN EIGHTEEN
-0.3010 SIXTY SEVENTY EIGHTY
-0.3010 TEN ELEVEN TWELVE
-0.3010 TEN TWENTY THIRTY
-0.3010 THIRTEEN FOURTEEN FIFTEEN
-0.3010 THIRTY FORTY FIFTY
-0.3010 THOUSAND HUNDRED </s>
-0.3010 THREE FOUR FIVE
-0.3010 TWELVE THIRTEEN FOURTEEN
-0.3010 TWENTY THIRTY FORTY
-0.3010 TWO THREE FOUR
-0.3010 VOLUME BY </s>
-0.3010 ZERO ONE TWO

\end\
